const defaultBrain = {"levels":[{"inputs":[0,0,0.05469329785485855,0.652373182429331,0.7281033193387665],"outputs":[0,1,0,1,1,0],"biases":[0.5114402885843176,-0.3177759612370778,-0.11400941179000129,-0.09121160714901469,-0.1434304309576584,-0.1493238439171818],"weights":[[-0.2010925387911225,0.6375894764349457,-0.1297928874007525,-0.1341941254650763,0.16669680214815322,-0.394508845274519],[0.33679788903825003,0.0430929147491026,0.4717375935783274,-0.27089270737200905,-0.6484740552834597,0.2593861885299835],[0.2682988722318188,-0.039091393991924905,-0.45271786225200367,0.5386925635469855,0.21934748865156067,-0.419443634180187],[0.01188456118326291,0.196529511926382,-0.04577424517095381,-0.1798445030525676,0.33950481311449826,-0.13219547862139155],[0.1399959275927195,-0.16151653884141204,-0.17054790305627343,0.1402810709147082,-0.12403418507036178,-0.1358463292773169]]},{"inputs":[0,1,0,1,1,0],"outputs":[1,1,1,0],"biases":[-0.5374189096586457,-0.26944568572577726,0.3167738473492436,0.2324907607936255],"weights":[[0.0016556668795893884,0.42803771046093336,-0.43235191562824854,-0.4419122564140571],[-0.10991101562224019,0.26541852523194054,0.30078891940455077,-0.5543511528459496],[0.5125420100007434,0.32343519179227564,-0.004680240927558903,0.2634372984333957],[-0.026471231547902145,0.2433508748459249,0.23686897278188007,0.021742364659318475],[0.5437298379934435,-0.7675774572167625,0.23317447370649877,-0.6213111599731723],[0.3394297779912747,-0.12414086929156516,0.08571010093486789,0.2978298627431471]]}]}