const defaultBrain3 = {"levels":[{"inputs":[0,0,0,0,0],"outputs":[0,0,0,1,0,0],"biases":[0.20941069783511776,0.42947043126433065,0.1390174467114283,-0.5200641695957848,0.28968402674961324,0.3889940142861352],"weights":[[-0.06244643201821669,-0.5236580100154615,0.40028766330784604,0.49370521633129266,-0.020284731071214958,0.17827121794611825],[-0.5545205261532307,-0.5882617101323692,0.3691526515336951,0.2092193277952129,0.3255134443103844,0.15940673245581172],[0.3063641524252976,0.1528623821030608,0.27359642682764257,0.35946158191958427,-0.19601912795417942,-0.25674553555768254],[-0.21907290927350995,-0.5378867546401264,0.4777750936594638,0.450871141695369,-0.5720843052231306,-0.19235073784765175],[0.22951939446204453,-0.44781820704413877,-0.20673269171969744,0.007410428625343763,0.6151785434618615,0.15366087014345753]]},{"inputs":[0,0,0,1,0,0],"outputs":[1,1,1,0],"biases":[-0.3778197033932456,-0.08980652168853721,-0.29992298983320936,0.3716116988598728],"weights":[[-0.060946699366452195,0.6637622347470674,-0.3790867210432606,-0.5209939805973864],[-0.31392579340652227,0.03476131959233958,0.15243081767140734,-0.3724065442437216],[-0.47887336260357904,-0.1803738935892855,0.3204192335487834,0.36896436821980294],[-0.15527930609026092,0.15001043267315234,-0.2578606621277204,-0.007077704988319292],[0.3237056229398917,0.31338109452486435,0.2580468111952771,-0.1363232499976388],[0.24393720404508484,0.37533601021559204,-0.39815411711899795,0.6090361793545023]]}]}