const defaultBrain2 = {"levels":[{"inputs":[0,0,0,0.10520339161436032,0.515739565117648],"outputs":[1,1,1,1,0,0],"biases":[-0.034142581780253894,0.007124085034065249,0.06157465812652919,-0.08658234124983744,-0.08339086220164674,0.005502270511734533],"weights":[[0.06120984561008003,-0.2334598349239338,-0.21341781198557333,0.06666367130302225,0.0231328891400112,-0.36237788338847665],[-0.18235392809059675,-0.15185063024579062,-0.19998306386513376,0.03455459618523166,-0.13396260895019935,0.22373176500383485],[-0.17564009935867567,0.20352706396656703,0.0973226221473294,0.030821250006410842,-0.1595641579321304,0.17749820875276598],[-0.03289719828645869,-0.09382154448417059,0.20548638097167848,0.16883279639267168,-0.0384645521920778,-0.08744952122850835],[0.07317519496339384,0.0578626668498369,0.08308991128056804,-0.19422635442698846,-0.21236833525625562,-0.05935129687336367]]},{"inputs":[1,1,1,1,0,0],"outputs":[1,1,0,0],"biases":[-0.06804824911465482,0.15316081101414292,-0.14249120537274845,-0.11737819866949875],"weights":[[0.24688163304221056,0.1347631058251395,-0.06400467080118041,-0.15624319945447745],[-0.12664197839130797,-0.045219065257873996,0.016938026138761785,-0.006409714574506946],[0.07017760741663549,0.20815634969247526,-0.24515970127690928,-0.10158612768753834],[-0.11834594606114657,0.07488864274147239,0.027020056328034114,-0.013842815279974984],[0.040999902409281315,-0.031299518981797225,-0.002534638994167157,-0.21393657984478112],[-0.16358500112183855,-0.010635079839945973,-0.1295024102891058,0.07417023998511488]]}]}