const defaultBrain2 = {"levels":[{"inputs":[0,0,0,0,0],"outputs":[1,1,0,0,0,0],"biases":[-0.09375789233768961,-0.45537694522088146,0.5052029484925071,0.17530160930078745,0.4551018507941944,0.7587985837097929],"weights":[[0.21985552888405135,-0.07171509971530993,0.3567754443441611,0.5333322741528119,0.8946107595190101,0.44908965738630374],[0.6569841596524787,-0.3418163829866931,-0.20668196707039693,-0.048084958766154595,0.8442730330841937,-0.19984573906981265],[-0.48302962224248863,-0.16484980139759087,0.5941439318713443,-0.4363363473155779,-0.21187219736240448,-0.06666762775941848],[0.05733233823667472,0.002855847016287827,-0.8299693312290867,0.29688520558860787,-0.4165283448750001,0.8201925099672462],[-0.1697485179486431,0.5885442188064918,0.8867247052707496,-0.3994267749504572,0.8645476703621257,-0.5003294989382581]]},{"inputs":[1,1,0,0,0,0],"outputs":[1,1,1,0],"biases":[-0.15420470082077953,-0.05602790841811711,-0.30800447184188107,0.46784953052405254],"weights":[[0.7796689528049671,-0.0767517030583339,0.4819359422831377,-0.39221173143008836],[-0.24295114149425134,0.9309306834258935,-0.11242951656662814,-0.44702505923043445],[0.3244027347683299,0.26514741795663443,-0.4075659493732041,-0.23005722767298598],[-0.42857487020341906,0.19361438782273224,-0.0937747363732574,-0.209482442536046],[0.1996397253531813,-0.5131832328476917,-0.48211905224767815,0.6227546470566591],[-0.06956195941788534,-0.7965810174153803,-0.4051936568891342,-0.4728482499810932]]}]}